digraph Tree {
node [shape=box] ;
0 [label="Demand <= 135.0\nmse = 0.166\nsamples = 2047\nvalue = [[0.905]\n[0.602]]"] ;
1 [label="Renewables <= 32.5\nmse = 0.072\nsamples = 1407\nvalue = [[1.01]\n[0.876]]"] ;
0 -> 1 [labeldistance=2.5, labelangle=45, headlabel="True"] ;
2 [label="Demand <= 110.0\nmse = 0.001\nsamples = 926\nvalue = [[1.062]\n[1.0]]"] ;
1 -> 2 ;
3 [label="Renewables <= 17.5\nmse = 0.0\nsamples = 585\nvalue = [[1.072]\n[1.0]]"] ;
2 -> 3 ;
4 [label="Time <= 0.5\nmse = 0.0\nsamples = 342\nvalue = [[1.074]\n[1.0]]"] ;
3 -> 4 ;
5 [label="Renewables <= 9.0\nmse = 0.0\nsamples = 169\nvalue = [[1.073]\n[1.0]]"] ;
4 -> 5 ;
6 [label="Season <= 0.5\nmse = 0.0\nsamples = 56\nvalue = [[1.071]\n[1.0]]"] ;
5 -> 6 ;
7 [label="mse = 0.0\nsamples = 25\nvalue = [[1.068]\n[1.0]]"] ;
6 -> 7 ;
8 [label="mse = 0.0\nsamples = 31\nvalue = [[1.073]\n[1.0]]"] ;
6 -> 8 ;
9 [label="Season <= 0.5\nmse = 0.0\nsamples = 113\nvalue = [[1.074]\n[1.0]]"] ;
5 -> 9 ;
10 [label="Renewables <= 12.5\nmse = 0.0\nsamples = 57\nvalue = [[1.074]\n[1.0]]"] ;
9 -> 10 ;
11 [label="mse = 0.0\nsamples = 30\nvalue = [[1.073]\n[1.0]]"] ;
10 -> 11 ;
12 [label="mse = 0.0\nsamples = 27\nvalue = [[1.076]\n[1.0]]"] ;
10 -> 12 ;
13 [label="Renewables <= 12.5\nmse = 0.0\nsamples = 56\nvalue = [[1.073]\n[1.0]]"] ;
9 -> 13 ;
14 [label="mse = 0.0\nsamples = 32\nvalue = [[1.074]\n[1.0]]"] ;
13 -> 14 ;
15 [label="mse = 0.0\nsamples = 24\nvalue = [[1.07]\n[1.0]]"] ;
13 -> 15 ;
16 [label="Season <= 0.5\nmse = 0.0\nsamples = 173\nvalue = [[1.075]\n[1.0]]"] ;
4 -> 16 ;
17 [label="Renewables <= 9.0\nmse = 0.0\nsamples = 78\nvalue = [[1.076]\n[1.0]]"] ;
16 -> 17 ;
18 [label="mse = 0.0\nsamples = 23\nvalue = [[1.075]\n[1.0]]"] ;
17 -> 18 ;
19 [label="Renewables <= 12.5\nmse = 0.0\nsamples = 55\nvalue = [[1.076]\n[1.0]]"] ;
17 -> 19 ;
20 [label="mse = 0.0\nsamples = 30\nvalue = [[1.076]\n[1.0]]"] ;
19 -> 20 ;
21 [label="mse = 0.0\nsamples = 25\nvalue = [[1.076]\n[1.0]]"] ;
19 -> 21 ;
22 [label="Renewables <= 9.0\nmse = 0.0\nsamples = 95\nvalue = [[1.074]\n[1.0]]"] ;
16 -> 22 ;
23 [label="mse = 0.0\nsamples = 33\nvalue = [[1.074]\n[1.0]]"] ;
22 -> 23 ;
24 [label="Renewables <= 12.5\nmse = 0.0\nsamples = 62\nvalue = [[1.074]\n[1.0]]"] ;
22 -> 24 ;
25 [label="mse = 0.0\nsamples = 30\nvalue = [[1.075]\n[1.0]]"] ;
24 -> 25 ;
26 [label="mse = 0.0\nsamples = 32\nvalue = [[1.074]\n[1.0]]"] ;
24 -> 26 ;
27 [label="Season <= 0.5\nmse = 0.0\nsamples = 243\nvalue = [[1.07]\n[1.0]]"] ;
3 -> 27 ;
28 [label="Renewables <= 22.5\nmse = 0.0\nsamples = 118\nvalue = [[1.069]\n[1.0]]"] ;
27 -> 28 ;
29 [label="Time <= 0.5\nmse = 0.0\nsamples = 61\nvalue = [[1.07]\n[1.0]]"] ;
28 -> 29 ;
30 [label="mse = 0.0\nsamples = 34\nvalue = [[1.07]\n[1.0]]"] ;
29 -> 30 ;
31 [label="mse = 0.0\nsamples = 27\nvalue = [[1.07]\n[1.0]]"] ;
29 -> 31 ;
32 [label="Time <= 0.5\nmse = 0.0\nsamples = 57\nvalue = [[1.068]\n[1.0]]"] ;
28 -> 32 ;
33 [label="mse = 0.0\nsamples = 29\nvalue = [[1.068]\n[1.0]]"] ;
32 -> 33 ;
34 [label="mse = 0.0\nsamples = 28\nvalue = [[1.068]\n[1.0]]"] ;
32 -> 34 ;
35 [label="Renewables <= 22.5\nmse = 0.0\nsamples = 125\nvalue = [[1.072]\n[1.0]]"] ;
27 -> 35 ;
36 [label="Time <= 0.5\nmse = 0.0\nsamples = 61\nvalue = [[1.073]\n[1.0]]"] ;
35 -> 36 ;
37 [label="mse = 0.0\nsamples = 27\nvalue = [[1.072]\n[1.0]]"] ;
36 -> 37 ;
38 [label="mse = 0.0\nsamples = 34\nvalue = [[1.074]\n[1.0]]"] ;
36 -> 38 ;
39 [label="Time <= 0.5\nmse = 0.0\nsamples = 64\nvalue = [[1.07]\n[1.0]]"] ;
35 -> 39 ;
40 [label="mse = 0.0\nsamples = 33\nvalue = [[1.071]\n[1.0]]"] ;
39 -> 40 ;
41 [label="mse = 0.0\nsamples = 31\nvalue = [[1.069]\n[1.0]]"] ;
39 -> 41 ;
42 [label="Renewables <= 22.5\nmse = 0.001\nsamples = 341\nvalue = [[1.043]\n[1.0]]"] ;
2 -> 42 ;
43 [label="Renewables <= 12.5\nmse = 0.001\nsamples = 285\nvalue = [[1.046]\n[1.0]]"] ;
42 -> 43 ;
44 [label="Time <= 0.5\nmse = 0.001\nsamples = 169\nvalue = [[1.049]\n[1.0]]"] ;
43 -> 44 ;
45 [label="Season <= 0.5\nmse = 0.001\nsamples = 78\nvalue = [[1.047]\n[1.0]]"] ;
44 -> 45 ;
46 [label="mse = 0.001\nsamples = 30\nvalue = [[1.041]\n[1.0]]"] ;
45 -> 46 ;
47 [label="Renewables <= 9.0\nmse = 0.001\nsamples = 48\nvalue = [[1.051]\n[1.0]]"] ;
45 -> 47 ;
48 [label="mse = 0.001\nsamples = 24\nvalue = [[1.052]\n[1.0]]"] ;
47 -> 48 ;
49 [label="mse = 0.001\nsamples = 24\nvalue = [[1.049]\n[1.0]]"] ;
47 -> 49 ;
50 [label="Season <= 0.5\nmse = 0.001\nsamples = 91\nvalue = [[1.05]\n[1.0]]"] ;
44 -> 50 ;
51 [label="mse = 0.001\nsamples = 28\nvalue = [[1.054]\n[1.0]]"] ;
50 -> 51 ;
52 [label="Renewables <= 9.0\nmse = 0.001\nsamples = 63\nvalue = [[1.049]\n[1.0]]"] ;
50 -> 52 ;
53 [label="mse = 0.001\nsamples = 30\nvalue = [[1.049]\n[1.0]]"] ;
52 -> 53 ;
54 [label="mse = 0.001\nsamples = 33\nvalue = [[1.049]\n[1.0]]"] ;
52 -> 54 ;
55 [label="Time <= 0.5\nmse = 0.001\nsamples = 116\nvalue = [[1.041]\n[1.0]]"] ;
43 -> 55 ;
56 [label="Season <= 0.5\nmse = 0.001\nsamples = 59\nvalue = [[1.039]\n[1.0]]"] ;
55 -> 56 ;
57 [label="mse = 0.001\nsamples = 31\nvalue = [[1.039]\n[1.0]]"] ;
56 -> 57 ;
58 [label="mse = 0.001\nsamples = 28\nvalue = [[1.04]\n[1.0]]"] ;
56 -> 58 ;
59 [label="Season <= 0.5\nmse = 0.001\nsamples = 57\nvalue = [[1.043]\n[1.0]]"] ;
55 -> 59 ;
60 [label="mse = 0.001\nsamples = 25\nvalue = [[1.045]\n[1.0]]"] ;
59 -> 60 ;
61 [label="mse = 0.001\nsamples = 32\nvalue = [[1.042]\n[1.0]]"] ;
59 -> 61 ;
62 [label="Time <= 0.5\nmse = 0.002\nsamples = 56\nvalue = [[1.031]\n[1.0]]"] ;
42 -> 62 ;
63 [label="mse = 0.002\nsamples = 28\nvalue = [[1.021]\n[1.0]]"] ;
62 -> 63 ;
64 [label="mse = 0.001\nsamples = 28\nvalue = [[1.041]\n[1.0]]"] ;
62 -> 64 ;
65 [label="Demand <= 110.0\nmse = 0.16\nsamples = 481\nvalue = [[0.911]\n[0.638]]"] ;
1 -> 65 ;
66 [label="Time <= 0.5\nmse = 0.0\nsamples = 244\nvalue = [[1.062]\n[1.0]]"] ;
65 -> 66 ;
67 [label="Renewables <= 45.0\nmse = 0.001\nsamples = 120\nvalue = [[1.056]\n[1.0]]"] ;
66 -> 67 ;
68 [label="Season <= 0.5\nmse = 0.001\nsamples = 62\nvalue = [[1.061]\n[1.0]]"] ;
67 -> 68 ;
69 [label="mse = 0.001\nsamples = 32\nvalue = [[1.06]\n[1.0]]"] ;
68 -> 69 ;
70 [label="mse = 0.001\nsamples = 30\nvalue = [[1.062]\n[1.0]]"] ;
68 -> 70 ;
71 [label="Season <= 0.5\nmse = 0.001\nsamples = 58\nvalue = [[1.05]\n[1.0]]"] ;
67 -> 71 ;
72 [label="mse = 0.001\nsamples = 29\nvalue = [[1.051]\n[1.0]]"] ;
71 -> 72 ;
73 [label="mse = 0.001\nsamples = 29\nvalue = [[1.05]\n[1.0]]"] ;
71 -> 73 ;
74 [label="Season <= 0.5\nmse = 0.0\nsamples = 124\nvalue = [[1.068]\n[1.0]]"] ;
66 -> 74 ;
75 [label="Renewables <= 45.0\nmse = 0.0\nsamples = 65\nvalue = [[1.066]\n[1.0]]"] ;
74 -> 75 ;
76 [label="mse = 0.0\nsamples = 33\nvalue = [[1.065]\n[1.0]]"] ;
75 -> 76 ;
77 [label="mse = 0.0\nsamples = 32\nvalue = [[1.066]\n[1.0]]"] ;
75 -> 77 ;
78 [label="Renewables <= 45.0\nmse = 0.0\nsamples = 59\nvalue = [[1.07]\n[1.0]]"] ;
74 -> 78 ;
79 [label="mse = 0.0\nsamples = 32\nvalue = [[1.073]\n[1.0]]"] ;
78 -> 79 ;
80 [label="mse = 0.0\nsamples = 27\nvalue = [[1.067]\n[1.0]]"] ;
78 -> 80 ;
81 [label="Renewables <= 45.0\nmse = 0.163\nsamples = 237\nvalue = [[0.756]\n[0.266]]"] ;
65 -> 81 ;
82 [label="Time <= 0.5\nmse = 0.177\nsamples = 118\nvalue = [[0.838]\n[0.534]]"] ;
81 -> 82 ;
83 [label="Season <= 0.5\nmse = 0.071\nsamples = 55\nvalue = [[0.632]\n[0.0]]"] ;
82 -> 83 ;
84 [label="mse = 0.066\nsamples = 26\nvalue = [[0.64]\n[0.0]]"] ;
83 -> 84 ;
85 [label="mse = 0.075\nsamples = 29\nvalue = [[0.626]\n[0.0]]"] ;
83 -> 85 ;
86 [label="Season <= 0.5\nmse = 0.002\nsamples = 63\nvalue = [[1.017]\n[1.0]]"] ;
82 -> 86 ;
87 [label="mse = 0.003\nsamples = 32\nvalue = [[1.013]\n[1.0]]"] ;
86 -> 87 ;
88 [label="mse = 0.002\nsamples = 31\nvalue = [[1.021]\n[1.0]]"] ;
86 -> 88 ;
89 [label="Season <= 0.5\nmse = 0.071\nsamples = 119\nvalue = [[0.674]\n[0.0]]"] ;
81 -> 89 ;
90 [label="Time <= 0.5\nmse = 0.073\nsamples = 62\nvalue = [[0.677]\n[0.0]]"] ;
89 -> 90 ;
91 [label="mse = 0.071\nsamples = 29\nvalue = [[0.695]\n[0.0]]"] ;
90 -> 91 ;
92 [label="mse = 0.075\nsamples = 33\nvalue = [[0.662]\n[0.0]]"] ;
90 -> 92 ;
93 [label="Time <= 0.5\nmse = 0.069\nsamples = 57\nvalue = [[0.671]\n[0.0]]"] ;
89 -> 93 ;
94 [label="mse = 0.074\nsamples = 27\nvalue = [[0.658]\n[0.0]]"] ;
93 -> 94 ;
95 [label="mse = 0.065\nsamples = 30\nvalue = [[0.682]\n[0.0]]"] ;
93 -> 95 ;
96 [label="Renewables <= 37.5\nmse = 0.068\nsamples = 640\nvalue = [[0.674]\n[0.0]]"] ;
0 -> 96 [labeldistance=2.5, labelangle=-45, headlabel="False"] ;
97 [label="Season <= 0.5\nmse = 0.069\nsamples = 411\nvalue = [[0.668]\n[0.0]]"] ;
96 -> 97 ;
98 [label="Renewables <= 16.5\nmse = 0.068\nsamples = 185\nvalue = [[0.653]\n[0.0]]"] ;
97 -> 98 ;
99 [label="Demand <= 175.0\nmse = 0.065\nsamples = 127\nvalue = [[0.67]\n[0.0]]"] ;
98 -> 99 ;
100 [label="Time <= 0.5\nmse = 0.072\nsamples = 66\nvalue = [[0.681]\n[0.0]]"] ;
99 -> 100 ;
101 [label="mse = 0.075\nsamples = 34\nvalue = [[0.703]\n[0.0]]"] ;
100 -> 101 ;
102 [label="mse = 0.069\nsamples = 32\nvalue = [[0.659]\n[0.0]]"] ;
100 -> 102 ;
103 [label="Time <= 0.5\nmse = 0.058\nsamples = 61\nvalue = [[0.657]\n[0.0]]"] ;
99 -> 103 ;
104 [label="mse = 0.061\nsamples = 32\nvalue = [[0.63]\n[0.0]]"] ;
103 -> 104 ;
105 [label="mse = 0.055\nsamples = 29\nvalue = [[0.687]\n[0.0]]"] ;
103 -> 105 ;
106 [label="Time <= 0.5\nmse = 0.073\nsamples = 58\nvalue = [[0.617]\n[0.0]]"] ;
98 -> 106 ;
107 [label="mse = 0.075\nsamples = 24\nvalue = [[0.589]\n[0.0]]"] ;
106 -> 107 ;
108 [label="mse = 0.071\nsamples = 34\nvalue = [[0.637]\n[0.0]]"] ;
106 -> 108 ;
109 [label="Renewables <= 20.0\nmse = 0.07\nsamples = 226\nvalue = [[0.68]\n[0.0]]"] ;
97 -> 109 ;
110 [label="Demand <= 175.0\nmse = 0.071\nsamples = 169\nvalue = [[0.676]\n[0.0]]"] ;
109 -> 110 ;
111 [label="Renewables <= 11.5\nmse = 0.072\nsamples = 115\nvalue = [[0.671]\n[0.0]]"] ;
110 -> 111 ;
112 [label="Time <= 0.5\nmse = 0.072\nsamples = 60\nvalue = [[0.674]\n[0.0]]"] ;
111 -> 112 ;
113 [label="mse = 0.074\nsamples = 31\nvalue = [[0.69]\n[0.0]]"] ;
112 -> 113 ;
114 [label="mse = 0.069\nsamples = 29\nvalue = [[0.658]\n[0.0]]"] ;
112 -> 114 ;
115 [label="Time <= 0.5\nmse = 0.073\nsamples = 55\nvalue = [[0.668]\n[0.0]]"] ;
111 -> 115 ;
116 [label="mse = 0.075\nsamples = 26\nvalue = [[0.644]\n[0.0]]"] ;
115 -> 116 ;
117 [label="mse = 0.07\nsamples = 29\nvalue = [[0.689]\n[0.0]]"] ;
115 -> 117 ;
118 [label="Time <= 0.5\nmse = 0.068\nsamples = 54\nvalue = [[0.686]\n[0.0]]"] ;
110 -> 118 ;
119 [label="mse = 0.069\nsamples = 26\nvalue = [[0.708]\n[0.0]]"] ;
118 -> 119 ;
120 [label="mse = 0.067\nsamples = 28\nvalue = [[0.666]\n[0.0]]"] ;
118 -> 120 ;
121 [label="Time <= 0.5\nmse = 0.068\nsamples = 57\nvalue = [[0.693]\n[0.0]]"] ;
109 -> 121 ;
122 [label="mse = 0.067\nsamples = 27\nvalue = [[0.666]\n[0.0]]"] ;
121 -> 122 ;
123 [label="mse = 0.068\nsamples = 30\nvalue = [[0.718]\n[0.0]]"] ;
121 -> 123 ;
124 [label="Season <= 0.5\nmse = 0.066\nsamples = 229\nvalue = [[0.685]\n[0.0]]"] ;
96 -> 124 ;
125 [label="Demand <= 175.0\nmse = 0.065\nsamples = 113\nvalue = [[0.693]\n[0.0]]"] ;
124 -> 125 ;
126 [label="Time <= 0.5\nmse = 0.069\nsamples = 51\nvalue = [[0.734]\n[0.0]]"] ;
125 -> 126 ;
127 [label="mse = 0.08\nsamples = 23\nvalue = [[0.713]\n[0.0]]"] ;
126 -> 127 ;
128 [label="mse = 0.059\nsamples = 28\nvalue = [[0.751]\n[0.0]]"] ;
126 -> 128 ;
129 [label="Time <= 0.5\nmse = 0.061\nsamples = 62\nvalue = [[0.66]\n[0.0]]"] ;
125 -> 129 ;
130 [label="mse = 0.06\nsamples = 30\nvalue = [[0.65]\n[0.0]]"] ;
129 -> 130 ;
131 [label="mse = 0.063\nsamples = 32\nvalue = [[0.669]\n[0.0]]"] ;
129 -> 131 ;
132 [label="Demand <= 175.0\nmse = 0.067\nsamples = 116\nvalue = [[0.677]\n[0.0]]"] ;
124 -> 132 ;
133 [label="Time <= 0.5\nmse = 0.073\nsamples = 55\nvalue = [[0.654]\n[0.0]]"] ;
132 -> 133 ;
134 [label="mse = 0.074\nsamples = 24\nvalue = [[0.675]\n[0.0]]"] ;
133 -> 134 ;
135 [label="mse = 0.072\nsamples = 31\nvalue = [[0.637]\n[0.0]]"] ;
133 -> 135 ;
136 [label="Time <= 0.5\nmse = 0.062\nsamples = 61\nvalue = [[0.697]\n[0.0]]"] ;
132 -> 136 ;
137 [label="mse = 0.072\nsamples = 31\nvalue = [[0.712]\n[0.0]]"] ;
136 -> 137 ;
138 [label="mse = 0.051\nsamples = 30\nvalue = [[0.682]\n[0.0]]"] ;
136 -> 138 ;
}